svm_type c_svc
kernel_type polynomial
degree 2
gamma 0.5
coef0 0.0
nr_class 2
total_sv 1096
rho 0.997640749946538
label 1 -1
nr_sv 542 554
SV
100.0 1:0.44066992 2:-4.3504375 
100.0 1:0.27822461 2:-4.0888125 
100.0 1:0.28741406 2:-4.3654375 
100.0 1:0.18921094 2:-3.328375 
100.0 1:0.34156641 2:-4.8388125 
100.0 1:0.28816211 2:-3.75325 
100.0 1:0.42295508 2:-4.58325 
100.0 1:0.35011133 2:-4.5961875 
100.0 1:0.30645703 2:-2.082 
100.0 1:0.33792773 2:-3.1846875 
100.0 1:0.41233789 2:-5.5705 
100.0 1:0.35138672 2:-4.4420625 
100.0 1:0.24904883 2:-4.0290625 
100.0 1:0.26214258 2:-4.100125 
100.0 1:0.27826172 2:-4.4676875 
100.0 1:0.33248828 2:-2.502 
100.0 1:0.36280664 2:-5.8456875 
100.0 1:0.35701172 2:-4.0114375 
100.0 1:0.33430859 2:-3.2810625 
100.0 1:0.29611523 2:-5.2068125 
100.0 1:0.32277539 2:-3.7033125 
100.0 1:0.33418555 2:-2.956375 
100.0 1:0.16690234 2:-2.8409375 
100.0 1:0.33725781 2:-3.869 
100.0 1:0.25451758 2:-1.7416875 
100.0 1:0.30048633 2:-3.50575 
100.0 1:0.24953906 2:-2.5758125 
100.0 1:0.2707207 2:-4.2679375 
100.0 1:0.37868359 2:-4.4215 
100.0 1:0.22776367 2:-2.785125 
100.0 1:0.33098047 2:-2.8483125 
100.0 1:0.39789844 2:-2.9333125 
100.0 1:0.31657031 2:-3.592375 
100.0 1:0.21885156 2:-1.7906875 
100.0 1:0.31800195 2:-2.7066875 
100.0 1:0.19188281 2:-2.0279375 
100.0 1:0.17126758 2:-2.6516875 
100.0 1:0.29497461 2:-2.2556875 
100.0 1:0.28387305 2:-3.2044375 
100.0 1:0.40943945 2:-2.8265625 
100.0 1:0.20573242 2:-2.702 
100.0 1:0.34373047 2:-3.911375 
100.0 1:0.24505859 2:-3.2475 
100.0 1:0.26678516 2:-2.513375 
100.0 1:0.25408203 2:-4.2065 
100.0 1:0.3456543 2:-3.2239375 
100.0 1:0.24648828 2:-3.09025 
100.0 1:0.19146289 2:-3.1794375 
100.0 1:0.32058789 2:-2.162375 
100.0 1:0.343625 2:-3.1510625 
100.0 1:0.30064063 2:-4.62675 
100.0 1:0.25929492 2:-3.3233125 
100.0 1:0.23530273 2:-1.1014375 
100.0 1:0.28984375 2:-4.7261875 
100.0 1:0.25291602 2:-4.2434375 
100.0 1:0.20922266 2:-2.4875625 
100.0 1:0.18249414 2:-3.0206875 
100.0 1:0.2452207 2:-4.069625 
100.0 1:0.47007031 2:-3.4156875 
100.0 1:0.25875391 2:-3.735125 
100.0 1:0.25331055 2:-5.259125 
100.0 1:0.33484375 2:-4.3180625 
100.0 1:0.19809375 2:-3.069 
100.0 1:0.23054297 2:-3.08525 
100.0 1:0.22968555 2:-4.1193125 
100.0 1:0.39870508 2:-6.2614375 
100.0 1:0.33263477 2:-5.3505 
100.0 1:0.25126563 2:-2.5884375 
100.0 1:0.28254102 2:-2.7315 
100.0 1:0.24461719 2:-3.759875 
100.0 1:0.30981836 2:-2.747 
100.0 1:0.25489844 2:-3.386625 
100.0 1:0.28346094 2:-1.1570625 
100.0 1:0.26345898 2:-4.1485 
100.0 1:0.28462109 2:-2.889125 
100.0 1:0.1962832 2:-2.790375 
100.0 1:0.16263086 2:-2.6108125 
100.0 1:0.17793555 2:-1.9318125 
100.0 1:0.28441602 2:-4.591875 
100.0 1:0.29831641 2:-1.8839375 
100.0 1:0.32322461 2:-4.9383125 
100.0 1:0.22491602 2:-2.3835 
100.0 1:0.29147852 2:-2.597125 
100.0 1:0.19753516 2:-3.424375 
100.0 1:0.27897461 2:-2.5580625 
100.0 1:0.43238867 2:-2.8535625 
100.0 1:0.32033984 2:-3.4545625 
100.0 1:0.27245117 2:-3.922625 
100.0 1:0.12591406 2:-1.9669375 
100.0 1:0.23814258 2:-3.4095 
100.0 1:0.3985957 2:-4.82175 
100.0 1:0.24329297 2:-3.091 
100.0 1:0.25313672 2:-2.7315 
100.0 1:0.27132227 2:-3.500875 
100.0 1:0.35445117 2:-2.0418125 
100.0 1:0.31777148 2:-5.3259375 
100.0 1:0.41664844 2:-5.8334375 
100.0 1:0.37456445 2:-3.8265 
100.0 1:0.29933008 2:-3.1620625 
100.0 1:0.17382031 2:-1.9191875 
100.0 1:0.16448242 2:-2.1161875 
100.0 1:0.37798242 2:-5.36075 
100.0 1:0.35523242 2:-5.1198125 
100.0 1:0.2519707 2:-2.6255625 
100.0 1:0.30011328 2:-3.26075 
100.0 1:0.2056543 2:-2.8788125 
100.0 1:0.2994707 2:-3.6604375 
100.0 1:0.28832227 2:-3.2866875 
100.0 1:0.12416602 2:-2.0903125 
100.0 1:0.11805469 2:-2.27 
100.0 1:0.17107227 2:-1.879375 
100.0 1:0.26833398 2:-4.8129375 
100.0 1:0.17469141 2:-2.1999375 
100.0 1:0.18063281 2:-1.7966875 
100.0 1:0.15491016 2:-3.04925 
100.0 1:0.23418945 2:-3.1060625 
100.0 1:0.34679102 2:-4.3859375 
100.0 1:0.18732031 2:-3.1871875 
100.0 1:0.24810742 2:-2.2230625 
100.0 1:0.20545117 2:-3.250625 
100.0 1:0.20155859 2:-2.3331875 
100.0 1:0.34156445 2:-3.5378125 
100.0 1:0.37650977 2:-3.31375 
100.0 1:0.35983789 2:-4.137 
100.0 1:0.18253516 2:-3.388375 
100.0 1:0.31178516 2:-2.6841875 
100.0 1:0.28626953 2:-2.63325 
100.0 1:0.3564082 2:-4.6351875 
100.0 1:0.29650781 2:-3.8868125 
100.0 1:0.31982812 2:-5.0585 
100.0 1:0.30227734 2:-2.2331875 
100.0 1:0.28037109 2:-1.59875 
100.0 1:0.21647656 2:-1.9361875 
100.0 1:0.24942188 2:-1.6803125 
100.0 1:0.25853125 2:-4.44175 
100.0 1:0.21929688 2:-1.9210625 
100.0 1:0.3401875 2:-1.4686875 
100.0 1:0.32116602 2:-1.6766875 
100.0 1:0.23394336 2:-2.904 
100.0 1:0.2692793 2:-4.3863125 
100.0 1:0.28656836 2:-5.2745 
100.0 1:0.34270508 2:-2.6396875 
100.0 1:0.22915234 2:-1.374375 
100.0 1:0.33480664 2:-2.5214375 
100.0 1:0.27562891 2:-3.6761875 
100.0 1:0.28976953 2:-3.163375 
100.0 1:0.34318555 2:-4.044125 
100.0 1:0.26531055 2:-4.804 
100.0 1:0.26812109 2:-3.9265625 
100.0 1:0.241125 2:-3.359 
100.0 1:0.35424609 2:-4.1588125 
100.0 1:0.1582793 2:-2.42875 
100.0 1:0.2905 2:-5.1194375 
100.0 1:0.20248633 2:-1.470125 
100.0 1:0.21135742 2:-2.489 
100.0 1:0.31603125 2:-3.776875 
100.0 1:0.23958398 2:-2.7159375 
100.0 1:0.34157617 2:-4.2260625 
100.0 1:0.36369141 2:-2.1930625 
100.0 1:0.32398242 2:-3.5039375 
100.0 1:0.20150586 2:-2.223875 
100.0 1:0.21023242 2:-3.081125 
100.0 1:0.38706445 2:-4.7500625 
100.0 1:0.25750977 2:-2.2086875 
100.0 1:0.3180957 2:-4.3368125 
100.0 1:0.31791016 2:-3.7708125 
100.0 1:0.48707422 2:-3.45225 
100.0 1:0.3085 2:-4.161875 
100.0 1:0.26771875 2:-2.972875 
100.0 1:0.22813086 2:-2.677875 
100.0 1:0.40599219 2:-2.685625 
100.0 1:0.27122852 2:-3.7273125 
100.0 1:0.20182617 2:-3.198125 
100.0 1:0.24357227 2:-2.9170625 
100.0 1:0.42968359 2:-4.415625 
100.0 1:0.27746094 2:-4.6858125 
100.0 1:0.16998047 2:-2.7985625 
100.0 1:0.11469336 2:-1.1860625 
100.0 1:0.34663867 2:-2.43325 
100.0 1:0.30842383 2:-5.3401875 
100.0 1:0.30995703 2:-2.99925 
100.0 1:0.36791797 2:-1.7798125 
100.0 1:0.38985742 2:-2.2789375 
100.0 1:0.32626953 2:-3.5511875 
100.0 1:0.2986543 2:-4.975125 
100.0 1:0.1933457 2:-2.478125 
100.0 1:0.19559961 2:-2.8805625 
100.0 1:0.22288086 2:-0.879125 
100.0 1:0.22076758 2:-3.50925 
100.0 1:0.44749609 2:-3.6575625 
100.0 1:0.18795117 2:-2.6435 
100.0 1:0.21619336 2:-3.8670625 
100.0 1:0.16503906 2:-2.1281875 
100.0 1:0.27644531 2:-2.738125 
100.0 1:0.21367188 2:-3.5629375 
100.0 1:0.22887305 2:-3.4574375 
100.0 1:0.23996094 2:-4.4979375 
100.0 1:0.34984961 2:-4.391 
100.0 1:0.29217773 2:-3.0855625 
100.0 1:0.45689844 2:-4.434625 
100.0 1:0.43435742 2:-3.4658125 
100.0 1:0.18168164 2:-1.866875 
100.0 1:0.1979668 2:-3.116375 
100.0 1:0.20913672 2:-3.9043125 
100.0 1:0.20894531 2:-4.481875 
100.0 1:0.22959961 2:-2.5274375 
100.0 1:0.24679883 2:-3.1264375 
100.0 1:0.27471484 2:-2.5206875 
100.0 1:0.32786133 2:-4.434 
100.0 1:0.30963086 2:-2.8083125 
100.0 1:0.38985547 2:-3.799625 
100.0 1:0.21798437 2:-2.28275 
100.0 1:0.26881055 2:-3.0364375 
100.0 1:0.20781641 2:-1.73425 
100.0 1:0.32364258 2:-0.9266875 
100.0 1:0.18230469 2:-3.516875 
100.0 1:0.20025195 2:-2.91475 
100.0 1:0.19434375 2:-2.10675 
100.0 1:0.17934961 2:-4.0168125 
100.0 1:0.23202734 2:-1.8263125 
100.0 1:0.29225195 2:-2.52325 
100.0 1:0.19449023 2:-2.5605 
100.0 1:0.22368359 2:-2.012125 
100.0 1:0.20332227 2:-4.2685625 
100.0 1:0.22722266 2:-2.2946875 
100.0 1:0.26252344 2:-3.743625 
100.0 1:0.17598047 2:-3.4860625 
100.0 1:0.29560156 2:-2.88125 
100.0 1:0.33454297 2:-4.7880625 
100.0 1:0.33392969 2:-4.0231875 
100.0 1:0.30508789 2:-5.8201875 
100.0 1:0.26403125 2:-4.804125 
100.0 1:0.19893359 2:-3.0593125 
100.0 1:0.25470508 2:-0.922875 
100.0 1:0.42402148 2:-4.7025625 
100.0 1:0.38944922 2:-2.8925625 
100.0 1:0.26929297 2:-2.8614375 
100.0 1:0.27592773 2:-3.5386875 
100.0 1:0.26537109 2:-3.0890625 
100.0 1:0.38280273 2:-4.365125 
100.0 1:0.23808984 2:-4.31375 
100.0 1:0.22843164 2:-2.9856875 
100.0 1:0.33358984 2:-2.0735 
100.0 1:0.47258203 2:-5.1478125 
100.0 1:0.27886328 2:-2.8150625 
100.0 1:0.33678711 2:-3.9640625 
100.0 1:0.24440234 2:-2.9349375 
100.0 1:0.29697656 2:-3.7760625 
100.0 1:0.25325586 2:-2.34125 
100.0 1:0.23811523 2:-3.25 
100.0 1:0.25968164 2:-4.701 
100.0 1:0.25855664 2:-4.6235625 
100.0 1:0.19732812 2:-3.4299375 
100.0 1:0.39165625 2:-3.201875 
100.0 1:0.23148828 2:-3.603875 
100.0 1:0.38961328 2:-2.5674375 
100.0 1:0.53747656 2:-5.9125 
100.0 1:0.49851172 2:-4.012375 
100.0 1:0.34680664 2:-2.6586875 
100.0 1:0.32651172 2:-2.089 
100.0 1:0.23910742 2:-3.884375 
100.0 1:0.22402539 2:-2.560375 
100.0 1:0.19187109 2:-2.8835625 
100.0 1:0.25475977 2:-3.0795 
100.0 1:0.34861719 2:-3.627625 
100.0 1:0.26051563 2:-3.0916875 
100.0 1:0.26091406 2:-2.994125 
100.0 1:0.18579297 2:-1.535625 
100.0 1:0.27365625 2:-5.3413125 
100.0 1:0.4163418 2:-3.113875 
100.0 1:0.25458203 2:-3.885375 
100.0 1:0.17887109 2:-3.1995625 
100.0 1:0.16845703 2:-3.3035 
100.0 1:0.1959375 2:-2.11625 
100.0 1:0.23158594 2:-3.2494375 
100.0 1:0.11993555 2:-1.763125 
100.0 1:0.19563672 2:-3.308 
100.0 1:0.34460352 2:-4.310625 
100.0 1:0.27666992 2:-2.86875 
100.0 1:0.18776562 2:-4.5545625 
100.0 1:0.22798828 2:-2.3349375 
100.0 1:0.22554688 2:-3.4891875 
100.0 1:0.20121484 2:-2.59925 
100.0 1:0.20608203 2:-3.458125 
100.0 1:0.20105078 2:-2.6285625 
100.0 1:0.30475 2:-3.782375 
100.0 1:0.30993359 2:-4.1353125 
100.0 1:0.26016406 2:-4.3838125 
100.0 1:0.2137168 2:-3.3163125 
100.0 1:0.4074082 2:-3.9875 
100.0 1:0.25452539 2:-1.412375 
100.0 1:0.27808203 2:-3.8909375 
100.0 1:0.24561719 2:-2.2079375 
100.0 1:0.28167578 2:-4.304125 
100.0 1:0.27562695 2:-4.340375 
100.0 1:0.24125 2:-3.3565 
100.0 1:0.23192383 2:-3.22575 
100.0 1:0.28276953 2:-4.7361875 
100.0 1:0.34100781 2:-3.5708125 
100.0 1:0.23352539 2:-3.975125 
100.0 1:0.34244141 2:-3.0976875 
100.0 1:0.13290039 2:-2.3090625 
100.0 1:0.36560547 2:-4.0115625 
100.0 1:0.25330078 2:-2.620125 
100.0 1:0.21359375 2:-2.771125 
100.0 1:0.32594336 2:-3.5015 
100.0 1:0.33538281 2:-3.271875 
100.0 1:0.27471094 2:-5.619875 
100.0 1:0.24695898 2:-2.8726875 
100.0 1:0.25708008 2:-4.588 
100.0 1:0.17051563 2:-3.0683125 
100.0 1:0.19397852 2:-3.848375 
100.0 1:0.19169922 2:-3.3955 
100.0 1:0.27269141 2:-2.4061875 
100.0 1:0.24682813 2:-3.020875 
100.0 1:0.21110352 2:-3.1179375 
100.0 1:0.31226367 2:-3.6335625 
100.0 1:0.3218125 2:-4.0596875 
100.0 1:0.34258594 2:-4.0031875 
100.0 1:0.3360625 2:-5.0768125 
100.0 1:0.18131836 2:-2.6103125 
100.0 1:0.16165234 2:-2.727625 
100.0 1:0.2047832 2:-4.6410625 
100.0 1:0.20130273 2:-2.4938125 
100.0 1:0.252875 2:-4.820875 
100.0 1:0.28405273 2:-2.7609375 
100.0 1:0.20524805 2:-3.2940625 
100.0 1:0.23007227 2:-3.1764375 
100.0 1:0.22306445 2:-2.1304375 
100.0 1:0.26711914 2:-3.2993125 
100.0 1:0.24388867 2:-4.0931875 
100.0 1:0.28783594 2:-4.0601875 
100.0 1:0.15414062 2:-2.2021875 
100.0 1:0.22633984 2:-2.71225 
100.0 1:0.24400781 2:-3.856625 
100.0 1:0.23644727 2:-3.2451875 
100.0 1:0.29218359 2:-3.6641875 
100.0 1:0.28443359 2:-2.0958125 
100.0 1:0.23073047 2:-1.6185625 
100.0 1:0.36822461 2:-3.207625 
100.0 1:0.2292832 2:-3.793375 
100.0 1:0.23611133 2:-4.131375 
100.0 1:0.43701758 2:-4.488375 
100.0 1:0.38616211 2:-3.214625 
100.0 1:0.31565234 2:-4.6780625 
100.0 1:0.19752148 2:-2.3913125 
100.0 1:0.22680664 2:-3.8293125 
100.0 1:0.17201758 2:-2.700875 
100.0 1:0.30742383 2:-3.268875 
100.0 1:0.27598047 2:-3.708 
100.0 1:0.29252734 2:-2.577 
100.0 1:0.27103711 2:-3.3648125 
100.0 1:0.32322656 2:-3.5009375 
100.0 1:0.22158984 2:-3.21225 
100.0 1:0.23028906 2:-4.82625 
100.0 1:0.17536328 2:-3.52325 
100.0 1:0.24296484 2:-4.9265625 
100.0 1:0.20635547 2:-3.31375 
100.0 1:0.20316992 2:-3.5863125 
100.0 1:0.34807617 2:-3.3745 
100.0 1:0.23117383 2:-1.6263125 
100.0 1:0.17340039 2:-2.8970625 
100.0 1:0.1824375 2:-2.253375 
100.0 1:0.22170898 2:-2.994125 
100.0 1:0.2059375 2:-3.43675 
100.0 1:0.18333789 2:-2.972125 
100.0 1:0.32995703 2:-5.0885625 
100.0 1:0.34518164 2:-3.089625 
100.0 1:0.21728125 2:-3.6040625 
100.0 1:0.24790234 2:-2.0054375 
100.0 1:0.24279883 2:-4.3206875 
100.0 1:0.16273437 2:-3.362 
100.0 1:0.14829883 2:-3.12725 
100.0 1:0.28289062 2:-4.6854375 
100.0 1:0.29769922 2:-3.3219375 
100.0 1:0.26974414 2:-2.4686875 
100.0 1:0.41063281 2:-3.0335 
100.0 1:0.27291406 2:-4.54875 
100.0 1:0.33769336 2:-4.9349375 
100.0 1:0.37672852 2:-2.83925 
100.0 1:0.27688086 2:-3.00525 
100.0 1:0.34779297 2:-3.0171875 
100.0 1:0.23342188 2:-3.4863125 
100.0 1:0.28263867 2:-4.5860625 
100.0 1:0.3217832 2:-2.419625 
100.0 1:0.39533594 2:-6.7176875 
100.0 1:0.28213672 2:-5.9331875 
100.0 1:0.32939453 2:-4.4934375 
100.0 1:0.32936133 2:-2.6848125 
100.0 1:0.32199414 2:-3.3899375 
100.0 1:0.21166602 2:-4.4863125 
100.0 1:0.28295508 2:-0.9159375 
100.0 1:0.28249219 2:-5.382 
100.0 1:0.37358398 2:-1.4289375 
100.0 1:0.45644531 2:-5.909 
100.0 1:0.28070703 2:-3.386625 
100.0 1:0.40866992 2:-6.1975625 
100.0 1:0.25119922 2:-4.5901875 
100.0 1:0.35639844 2:-5.66275 
100.0 1:0.29777344 2:-3.685375 
100.0 1:0.21851953 2:-2.33275 
100.0 1:0.32717578 2:-3.737625 
100.0 1:0.28992578 2:-2.24675 
100.0 1:0.35313672 2:-3.7525625 
100.0 1:0.24664258 2:-2.0425625 
100.0 1:0.38183594 2:-2.5176875 
100.0 1:0.36061719 2:-4.7583125 
100.0 1:0.24798438 2:-1.645375 
100.0 1:0.26118359 2:-3.87125 
100.0 1:0.16975977 2:-3.0816875 
100.0 1:0.33693945 2:-3.259875 
100.0 1:0.25019141 2:-3.5898125 
100.0 1:0.29958203 2:-3.055375 
100.0 1:0.23005273 2:-3.1355625 
100.0 1:0.26474414 2:-4.135375 
100.0 1:0.39456641 2:-5.40375 
100.0 1:0.33640234 2:-3.262875 
100.0 1:0.31878516 2:-2.9740625 
100.0 1:0.19802344 2:-3.217 
100.0 1:0.18999219 2:-2.8030625 
100.0 1:0.48124219 2:-4.2619375 
100.0 1:0.39850391 2:-5.1421875 
100.0 1:0.29498828 2:-3.6255 
100.0 1:0.22382227 2:-3.1024375 
100.0 1:0.63630273 2:-3.811125 
100.0 1:0.39998242 2:-5.83025 
100.0 1:0.30944727 2:-4.920875 
100.0 1:0.38100195 2:-4.0913125 
100.0 1:0.19657227 2:-2.5599375 
100.0 1:0.28523633 2:-5.0523125 
100.0 1:0.30372656 2:-3.7325 
100.0 1:0.34957617 2:-4.8681875 
100.0 1:0.22933008 2:-1.4585 
100.0 1:0.20953125 2:-2.31975 
100.0 1:0.33252148 2:-2.671125 
100.0 1:0.33732617 2:-2.0031875 
100.0 1:0.24621484 2:-2.1268125 
100.0 1:0.26848047 2:-2.389375 
100.0 1:0.20867188 2:-2.972625 
100.0 1:0.26129297 2:-3.4439375 
100.0 1:0.36631055 2:-4.4484375 
100.0 1:0.21107031 2:-2.5110625 
100.0 1:0.24078906 2:-3.714875 
100.0 1:0.36097656 2:-4.47375 
100.0 1:0.22273828 2:-3.67025 
100.0 1:0.21485938 2:-2.81125 
100.0 1:0.15041211 2:-2.840125 
100.0 1:0.26586328 2:-1.8378125 
100.0 1:0.16663672 2:-0.9226875 
100.0 1:0.33104102 2:-2.396 
100.0 1:0.24013281 2:-3.9851875 
100.0 1:0.29282812 2:-3.0000625 
100.0 1:0.21201367 2:-2.6100625 
100.0 1:0.25363281 2:-2.1921875 
100.0 1:0.31439063 2:-1.372 
100.0 1:0.32114258 2:-3.879125 
100.0 1:0.34213672 2:-2.21525 
100.0 1:0.31833984 2:-3.9101875 
100.0 1:0.18915625 2:-2.730375 
100.0 1:0.2424082 2:-4.52975 
100.0 1:0.12989258 2:-2.002875 
100.0 1:0.16420898 2:-2.2751875 
100.0 1:0.35279102 2:-1.1444375 
100.0 1:0.37254492 2:-3.54475 
100.0 1:0.32970117 2:-4.3779375 
100.0 1:0.32062891 2:-3.608625 
100.0 1:0.23587695 2:-3.104625 
100.0 1:0.20524414 2:-2.742625 
100.0 1:0.34828516 2:-4.4009375 
100.0 1:0.4075293 2:-3.602375 
100.0 1:0.27020117 2:-4.633875 
100.0 1:0.34442578 2:-4.14075 
100.0 1:0.28167188 2:-1.3150625 
100.0 1:0.33244727 2:-5.4505 
100.0 1:0.25854297 2:-1.9469375 
100.0 1:0.28335937 2:-5.64725 
100.0 1:0.21907617 2:-2.309 
100.0 1:0.20453516 2:-2.7575 
100.0 1:0.24589844 2:-2.381375 
100.0 1:0.38547461 2:-3.8594375 
100.0 1:0.18537305 2:-2.150125 
100.0 1:0.2485918 2:-3.072625 
100.0 1:0.2670332 2:-4.2991875 
100.0 1:0.32821484 2:-3.377375 
100.0 1:0.27573242 2:-2.024875 
100.0 1:0.27304883 2:-2.7235625 
100.0 1:0.35416211 2:-5.13225 
100.0 1:0.2853125 2:-2.308875 
100.0 1:0.35437891 2:-3.67175 
100.0 1:0.48145117 2:-3.388 
100.0 1:0.27879883 2:-4.7460625 
100.0 1:0.19296289 2:-2.1853125 
100.0 1:0.27455664 2:-1.5620625 
100.0 1:0.24530078 2:-2.4893125 
100.0 1:0.31470898 2:-5.022375 
100.0 1:0.37425977 2:-6.9378125 
100.0 1:0.18386523 2:-2.3635 
100.0 1:0.22955859 2:-3.2878125 
100.0 1:0.20196094 2:-2.5460625 
100.0 1:0.19316602 2:-1.945125 
100.0 1:0.24685352 2:-3.0428125 
100.0 1:0.24696484 2:-2.446625 
100.0 1:0.26777344 2:-3.47225 
100.0 1:0.25980469 2:-4.1055 
100.0 1:0.17983789 2:-2.21075 
100.0 1:0.44936328 2:-4.8013125 
100.0 1:0.41378516 2:-2.7640625 
100.0 1:0.3052793 2:-3.3136875 
100.0 1:0.20828906 2:-3.446375 
100.0 1:0.16669336 2:-3.11175 
100.0 1:0.24243945 2:-2.4279375 
100.0 1:0.55966797 2:-2.449125 
100.0 1:0.27969727 2:-5.0708125 
100.0 1:0.34248828 2:-3.007375 
100.0 1:0.26470703 2:-3.743375 
100.0 1:0.2560957 2:-3.5296875 
100.0 1:0.21010352 2:-2.54275 
100.0 1:0.33385547 2:-3.1575 
100.0 1:0.22311914 2:-3.4271875 
100.0 1:0.40074023 2:-6.8451875 
100.0 1:0.16269141 2:-2.1070625 
100.0 1:0.33954297 2:-2.632375 
100.0 1:0.25723242 2:-3.903625 
100.0 1:0.41551562 2:-4.2259375 
100.0 1:0.2454043 2:-2.608125 
100.0 1:0.16996094 2:-2.7726875 
100.0 1:0.27501172 2:-4.4645625 
100.0 1:0.33283984 2:-3.3153125 
100.0 1:0.30686133 2:-6.5006875 
100.0 1:0.26757422 2:-3.5734375 
100.0 1:0.27630664 2:-2.03475 
100.0 1:0.30235937 2:-5.8390625 
100.0 1:0.24019922 2:-3.4763125 
100.0 1:0.4194082 2:-4.9998125 
100.0 1:0.28808594 2:-2.365375 
100.0 1:0.3371582 2:-3.8149375 
100.0 1:0.29001562 2:-3.314 
100.0 1:0.29567383 2:-3.2821875 
100.0 1:0.2689082 2:-3.412375 
100.0 1:0.24613477 2:-3.1555 
100.0 1:0.14553125 2:-1.92825 
100.0 1:0.25189063 2:-3.2545 
-100.0 1:0.44413086 2:-5.4968125 
-100.0 1:0.28954102 2:-4.644125 
-100.0 1:0.33150781 2:-1.9401875 
-100.0 1:0.20682227 2:-2.31725 
-100.0 1:0.20930078 2:-3.767125 
-100.0 1:0.16880273 2:-3.3520625 
-100.0 1:0.41479102 2:-3.7660625 
-100.0 1:0.17676562 2:-2.18075 
-100.0 1:0.29141602 2:-3.130625 
-100.0 1:0.28325195 2:-4.861125 
-100.0 1:0.33438867 2:-4.930875 
-100.0 1:0.31361914 2:-3.78425 
-100.0 1:0.30116602 2:-3.454875 
-100.0 1:0.39301562 2:-4.5141875 
-100.0 1:0.29694531 2:-3.1875 
-100.0 1:0.34718164 2:-5.0629375 
-100.0 1:0.20225391 2:-2.3948125 
-100.0 1:0.12221289 2:-1.896 
-100.0 1:0.20792578 2:-2.2953125 
-100.0 1:0.28036523 2:-3.41475 
-100.0 1:0.12535156 2:-2.5491875 
-100.0 1:0.25545898 2:-3.367125 
-100.0 1:0.34135156 2:-3.9849375 
-100.0 1:0.33362305 2:-3.660375 
-100.0 1:0.34348047 2:-2.28275 
-100.0 1:0.44555664 2:-2.8524375 
-100.0 1:0.26838477 2:-3.1514375 
-100.0 1:0.23298633 2:-2.002375 
-100.0 1:0.28771484 2:-4.489 
-100.0 1:0.24226758 2:-5.4451875 
-100.0 1:0.10009375 2:-2.2575 
-100.0 1:0.29919727 2:-3.645375 
-100.0 1:0.44145898 2:-2.5428125 
-100.0 1:0.25583398 2:-4.462875 
-100.0 1:0.26074023 2:-4.97875 
-100.0 1:0.31945313 2:-3.7214375 
-100.0 1:0.24554297 2:-3.801875 
-100.0 1:0.25310938 2:-3.3103125 
-99.95161550271578 1:0.35231641 2:-2.5646875 
-100.0 1:0.18875977 2:-2.61775 
-100.0 1:0.29429687 2:-3.6584375 
-100.0 1:0.27436719 2:-2.3890625 
-100.0 1:0.22574414 2:-2.3684375 
-100.0 1:0.29704883 2:-3.9256875 
-100.0 1:0.35638672 2:-4.4035 
-100.0 1:0.29736914 2:-3.4948125 
-100.0 1:0.32923242 2:-4.2795625 
-100.0 1:0.2610918 2:-2.924625 
-100.0 1:0.36859766 2:-2.314875 
-72.33999235063071 1:0.27767969 2:-2.165375 
-100.0 1:0.30784375 2:-3.0463125 
-100.0 1:0.31676953 2:-2.14075 
-100.0 1:0.2551543 2:-2.345875 
-100.0 1:0.2215957 2:-3.9154375 
-100.0 1:0.34657227 2:-2.2581875 
-95.05286343555363 1:0.30416992 2:-2.0409375 
-100.0 1:0.30012305 2:-4.593625 
-100.0 1:0.29372266 2:-4.1110625 
-100.0 1:0.18283203 2:-1.520625 
-100.0 1:0.17047266 2:-2.255125 
-100.0 1:0.31731445 2:-4.57025 
-100.0 1:0.27696094 2:-3.481375 
-100.0 1:0.2591543 2:-1.780875 
-100.0 1:0.32707617 2:-5.3795 
-100.0 1:0.41620703 2:-3.46575 
-100.0 1:0.30292383 2:-2.5051875 
-100.0 1:0.31397852 2:-5.3356875 
-100.0 1:0.1968457 2:-2.86375 
-100.0 1:0.18425391 2:-2.939625 
-100.0 1:0.24593945 2:-2.1311875 
-100.0 1:0.24601367 2:-2.191 
-100.0 1:0.10470117 2:-2.0403125 
-100.0 1:0.33854297 2:-5.295 
-100.0 1:0.22565039 2:-2.6808125 
-100.0 1:0.21339063 2:-4.5384375 
-100.0 1:0.30196484 2:-2.5315 
-100.0 1:0.26488281 2:-3.2199375 
-100.0 1:0.22852344 2:-2.6631875 
-100.0 1:0.30953906 2:-4.6729375 
-100.0 1:0.27819727 2:-3.7015 
-100.0 1:0.21472266 2:-3.5068125 
-100.0 1:0.20530664 2:-2.8386875 
-43.32425933919739 1:0.39793555 2:-2.6754375 
-100.0 1:0.16313281 2:-2.268625 
-98.99790680257003 1:0.13395313 2:-2.58675 
-100.0 1:0.34674805 2:-4.9859375 
-100.0 1:0.39329102 2:-2.96975 
-100.0 1:0.45111328 2:-4.638 
-100.0 1:0.24764258 2:-2.31925 
-100.0 1:0.16185547 2:-1.519125 
-100.0 1:0.35276562 2:-4.7933125 
-100.0 1:0.23649805 2:-4.5658125 
-100.0 1:0.20575391 2:-4.6519375 
-100.0 1:0.37476758 2:-6.0885625 
-100.0 1:0.30496484 2:-3.691125 
-100.0 1:0.31034766 2:-5.7493125 
-100.0 1:0.21748633 2:-2.4785 
-100.0 1:0.26811719 2:-3.05975 
-100.0 1:0.21860547 2:-3.1045625 
-100.0 1:0.39319922 2:-2.43675 
-100.0 1:0.41963086 2:-2.7916875 
-100.0 1:0.22533789 2:-4.357625 
-100.0 1:0.31746484 2:-3.2116875 
-100.0 1:0.21916016 2:-2.79625 
-100.0 1:0.30238477 2:-4.3874375 
-100.0 1:0.40097656 2:-4.777375 
-100.0 1:0.45625781 2:-3.9156875 
-100.0 1:0.40966797 2:-3.993875 
-100.0 1:0.35253906 2:-2.61525 
-100.0 1:0.32357812 2:-3.277 
-100.0 1:0.17334375 2:-3.4825625 
-100.0 1:0.30735547 2:-1.987125 
-100.0 1:0.21465625 2:-3.1859375 
-100.0 1:0.22452344 2:-3.2474375 
-100.0 1:0.28708789 2:-2.5873125 
-100.0 1:0.19671484 2:-3.3389375 
-100.0 1:0.27905078 2:-4.1588125 
-100.0 1:0.4747207 2:-3.821125 
-100.0 1:0.3599668 2:-4.7544375 
-100.0 1:0.32683008 2:-4.0153125 
-100.0 1:0.16895703 2:-2.7516875 
-100.0 1:0.15566016 2:-2.349875 
-100.0 1:0.29102539 2:-2.3373125 
-100.0 1:0.42236523 2:-3.9070625 
-100.0 1:0.32233594 2:-3.5528125 
-100.0 1:0.40152148 2:-3.35125 
-100.0 1:0.30542383 2:-4.773875 
-100.0 1:0.32863477 2:-3.693375 
-100.0 1:0.41108008 2:-4.3343125 
-100.0 1:0.24608203 2:-3.8506875 
-100.0 1:0.12414258 2:-2.3363125 
-100.0 1:0.25036328 2:-3.019875 
-100.0 1:0.30395312 2:-2.4815625 
-95.78039080424925 1:0.25672656 2:-1.856 
-100.0 1:0.34549414 2:-5.2533125 
-100.0 1:0.27438672 2:-1.98 
-100.0 1:0.29208203 2:-3.0359375 
-100.0 1:0.19991992 2:-3.5648125 
-100.0 1:0.27866992 2:-3.1021875 
-100.0 1:0.19886328 2:-2.5488125 
-100.0 1:0.27175977 2:-2.2280625 
-100.0 1:0.24904688 2:-4.5860625 
-100.0 1:0.35916992 2:-5.396 
-100.0 1:0.28972266 2:-3.752625 
-100.0 1:0.28090625 2:-1.948125 
-100.0 1:0.40140625 2:-4.0538125 
-100.0 1:0.30325391 2:-4.8945625 
-100.0 1:0.22727734 2:-3.095375 
-100.0 1:0.28486719 2:-3.718875 
-100.0 1:0.20337109 2:-3.343875 
-100.0 1:0.33573047 2:-4.2478125 
-100.0 1:0.38264258 2:-2.117875 
-100.0 1:0.12290039 2:-2.5601875 
-100.0 1:0.19261133 2:-1.907375 
-100.0 1:0.25078516 2:-2.29325 
-100.0 1:0.27367383 2:-2.1773125 
-100.0 1:0.4121875 2:-4.211 
-100.0 1:0.34958789 2:-6.155125 
-100.0 1:0.25610352 2:-4.7163125 
-100.0 1:0.19270117 2:-2.1895 
-100.0 1:0.38346484 2:-2.8445 
-100.0 1:0.28879492 2:-3.6378125 
-100.0 1:0.36126172 2:-3.423875 
-100.0 1:0.23957422 2:-3.8883125 
-100.0 1:0.2184043 2:-3.258125 
-100.0 1:0.37858984 2:-2.6868125 
-100.0 1:0.25782422 2:-4.0645625 
-100.0 1:0.17714062 2:-2.3680625 
-100.0 1:0.45036328 2:-3.8025 
-31.76374798808328 1:0.16573828 2:-3.3041875 
-100.0 1:0.471 2:-3.108 
-100.0 1:0.28554492 2:-5.41175 
-100.0 1:0.21296484 2:-1.6684375 
-100.0 1:0.25761328 2:-2.3586875 
-100.0 1:0.22025 2:-3.0306875 
-100.0 1:0.36124023 2:-3.3540625 
-100.0 1:0.13710156 2:-2.3773125 
-4.514602692747054 1:0.38666406 2:-2.618125 
-100.0 1:0.25864844 2:-4.2033125 
-100.0 1:0.32183594 2:-4.6823125 
-100.0 1:0.30668164 2:-3.5968125 
-100.0 1:0.24345117 2:-3.248125 
-100.0 1:0.3902207 2:-3.342375 
-100.0 1:0.42545898 2:-2.3104375 
-100.0 1:0.31481055 2:-3.7885625 
-100.0 1:0.16715039 2:-3.0455 
-100.0 1:0.37478516 2:-3.9449375 
-100.0 1:0.37522461 2:-4.0751875 
-100.0 1:0.33538672 2:-3.9215625 
-100.0 1:0.2049082 2:-4.3041875 
-100.0 1:0.22320313 2:-2.806375 
-100.0 1:0.37298047 2:-3.0148125 
-100.0 1:0.32399805 2:-3.6455625 
-100.0 1:0.22898633 2:-3.8538125 
-100.0 1:0.36463672 2:-5.2138125 
-100.0 1:0.15351367 2:-2.8905 
-100.0 1:0.30986328 2:-2.678625 
-78.94646745356049 1:0.22712305 2:-3.956625 
-100.0 1:0.29772266 2:-2.9845 
-100.0 1:0.32907812 2:-1.86675 
-100.0 1:0.27653711 2:-3.3175625 
-100.0 1:0.25031445 2:-4.073125 
-100.0 1:0.22101953 2:-4.0928125 
-0.0586472458292873 1:0.14190234 2:-2.9960625 
-100.0 1:0.2566875 2:-3.594875 
-100.0 1:0.39324414 2:-2.4733125 
-100.0 1:0.20331055 2:-3.11325 
-100.0 1:0.24211719 2:-3.517375 
-100.0 1:0.39798828 2:-2.7364375 
-100.0 1:0.33468945 2:-3.2365 
-100.0 1:0.16398828 2:-2.6860625 
-100.0 1:0.39248828 2:-3.027875 
-100.0 1:0.17099023 2:-2.9165625 
-99.84766463293167 1:0.29849609 2:-3.9649375 
-100.0 1:0.29921875 2:-4.207375 
-100.0 1:0.30803125 2:-3.0019375 
-100.0 1:0.22426367 2:-3.909375 
-100.0 1:0.24957031 2:-3.7960625 
-100.0 1:0.18467578 2:-2.040125 
-100.0 1:0.20022656 2:-3.5161875 
-100.0 1:0.26800977 2:-2.4195 
-100.0 1:0.20643164 2:-3.2873125 
-100.0 1:0.13337695 2:-2.63725 
-100.0 1:0.29078711 2:-2.114 
-100.0 1:0.36425586 2:-4.5600625 
-100.0 1:0.32768164 2:-3.8809375 
-100.0 1:0.35126758 2:-4.4229375 
-8.603627940766934 1:0.23367578 2:-2.1321875 
-100.0 1:0.38685742 2:-5.72125 
-100.0 1:0.24793164 2:-3.6923125 
-100.0 1:0.20227539 2:-2.6524375 
-100.0 1:0.34810156 2:-5.0919375 
-100.0 1:0.24269336 2:-4.49325 
-100.0 1:0.33718359 2:-3.04075 
-100.0 1:0.32758203 2:-4.008125 
-100.0 1:0.2096543 2:-3.3384375 
-100.0 1:0.19701367 2:-2.13925 
-100.0 1:0.35609766 2:-2.9411875 
-100.0 1:0.31833008 2:-2.2700625 
-100.0 1:0.33458398 2:-5.768125 
-100.0 1:0.31225977 2:-1.9321875 
-100.0 1:0.17560156 2:-3.320375 
-100.0 1:0.13451953 2:-3.1604375 
-100.0 1:0.1665918 2:-2.88275 
-100.0 1:0.24535742 2:-3.0871875 
-100.0 1:0.13833594 2:-2.906875 
-100.0 1:0.24683398 2:-3.15875 
-59.18811618408638 1:0.17592578 2:-2.996875 
-100.0 1:0.31485156 2:-4.1795 
-100.0 1:0.36959961 2:-5.9623125 
-100.0 1:0.27291602 2:-4.354625 
-100.0 1:0.28655664 2:-3.3416875 
-100.0 1:0.22749609 2:-2.9654375 
-100.0 1:0.50018164 2:-4.394625 
-100.0 1:0.30931641 2:-2.750125 
-100.0 1:0.32937891 2:-1.713375 
-100.0 1:0.28432422 2:-3.0955625 
-100.0 1:0.37933789 2:-3.19475 
-100.0 1:0.20068945 2:-2.8734375 
-23.88170541106317 1:0.3974043 2:-3.18575 
-98.81210002346853 1:0.13879883 2:-1.968 
-8.446398121541245 1:0.4420332 2:-3.6693125 
-100.0 1:0.20646875 2:-2.1166875 
-100.0 1:0.13369531 2:-2.6811875 
-100.0 1:0.14578711 2:-2.0193125 
-100.0 1:0.17117969 2:-2.7189375 
-100.0 1:0.13674414 2:-2.6331875 
-100.0 1:0.18235938 2:-3.0129375 
-100.0 1:0.12099414 2:-1.974625 
-100.0 1:0.32594531 2:-4.93 
-100.0 1:0.2622793 2:-3.6535625 
-100.0 1:0.25462695 2:-3.4156875 
-100.0 1:0.44185156 2:-3.6235 
-97.03864129482922 1:0.099441406 2:-2.0795 
-100.0 1:0.38156445 2:-5.0653125 
-100.0 1:0.21823438 2:-2.610625 
-100.0 1:0.32691016 2:-2.5905 
-100.0 1:0.2321582 2:-4.1448125 
-100.0 1:0.24508984 2:-1.8170625 
-100.0 1:0.18289453 2:-3.3156875 
-100.0 1:0.33852344 2:-3.2181875 
-100.0 1:0.32398437 2:-5.519 
-100.0 1:0.24619141 2:-4.186875 
-100.0 1:0.24407227 2:-4.229 
-100.0 1:0.21264844 2:-2.9796875 
-100.0 1:0.11671875 2:-2.3286875 
-100.0 1:0.4660332 2:-3.523875 
-100.0 1:0.273875 2:-5.762125 
-100.0 1:0.26863672 2:-3.92925 
-80.15144871091435 1:0.35210742 2:-4.3413125 
-100.0 1:0.27839453 2:-2.256625 
-100.0 1:0.26938086 2:-3.7621875 
-100.0 1:0.31341016 2:-3.07175 
-100.0 1:0.15013867 2:-3.0341875 
-100.0 1:0.24398438 2:-3.719375 
-100.0 1:0.19264258 2:-2.876 
-100.0 1:0.15335352 2:-3.1814375 
-100.0 1:0.27983203 2:-4.998 
-100.0 1:0.2067793 2:-2.8316875 
-100.0 1:0.29553906 2:-3.6444375 
-100.0 1:0.24403516 2:-3.33375 
-100.0 1:0.18870117 2:-3.0108125 
-100.0 1:0.16502344 2:-2.9746875 
-100.0 1:0.1194082 2:-2.294 
-100.0 1:0.27932617 2:-4.1611875 
-100.0 1:0.28028516 2:-4.547 
-100.0 1:0.1920293 2:-3.27425 
-100.0 1:0.33367383 2:-4.751375 
-98.90957091754662 1:0.22376562 2:-3.1526875 
-100.0 1:0.37240234 2:-3.902125 
-100.0 1:0.14104297 2:-2.236375 
-100.0 1:0.17548047 2:-3.567 
-100.0 1:0.20157422 2:-3.8138125 
-100.0 1:0.23110156 2:-3.36125 
-100.0 1:0.13850586 2:-3.0759375 
-100.0 1:0.22488672 2:-4.0564375 
-87.58970686325887 1:0.2322168 2:-4.5760625 
-100.0 1:0.35527734 2:-2.8031875 
-100.0 1:0.24883203 2:-4.1166875 
-100.0 1:0.20382617 2:-3.0071875 
-100.0 1:0.26166016 2:-2.042 
-100.0 1:0.14473438 2:-2.6431875 
-100.0 1:0.36563477 2:-3.1015 
-100.0 1:0.16257031 2:-3.3836875 
-100.0 1:0.31025977 2:-2.604625 
-100.0 1:0.1854707 2:-3.49675 
-100.0 1:0.1672168 2:-3.3611875 
-100.0 1:0.22906641 2:-1.590375 
-100.0 1:0.25904102 2:-4.564 
-100.0 1:0.35314844 2:-5.3280625 
-100.0 1:0.41433789 2:-4.3966875 
-100.0 1:0.13604102 2:-2.4754375 
-97.44709658585988 1:0.16224609 2:-2.8259375 
-100.0 1:0.25042773 2:-3.641875 
-100.0 1:0.40867188 2:-3.7954375 
-100.0 1:0.24639453 2:-3.246 
-100.0 1:0.2477793 2:-3.9765 
-100.0 1:0.23373633 2:-3.3294375 
-100.0 1:0.26879688 2:-3.7056875 
-100.0 1:0.31810938 2:-1.90625 
-100.0 1:0.31316992 2:-2.777625 
-100.0 1:0.29016016 2:-4.3633125 
-100.0 1:0.32582227 2:-3.9795 
-100.0 1:0.14024805 2:-2.6734375 
-100.0 1:0.31555273 2:-3.88875 
-8.958601920270779 1:0.22701367 2:-3.6714375 
-100.0 1:0.17422266 2:-3.7083125 
-100.0 1:0.34041602 2:-3.856875 
-100.0 1:0.32941602 2:-2.3140625 
-100.0 1:0.088638672 2:-1.6873125 
-100.0 1:0.25717773 2:-2.1083125 
-100.0 1:0.23957617 2:-2.785375 
-100.0 1:0.23557227 2:-1.9678125 
-100.0 1:0.38377344 2:-6.2124375 
-100.0 1:0.24583008 2:-2.7515625 
-100.0 1:0.38823047 2:-3.969 
-100.0 1:0.43607617 2:-2.363125 
-100.0 1:0.18112891 2:-2.400875 
-100.0 1:0.19974219 2:-2.46175 
-100.0 1:0.19295312 2:-3.474625 
-100.0 1:0.26146289 2:-3.535125 
-100.0 1:0.35262109 2:-3.0621875 
-100.0 1:0.091326172 2:-2.0931875 
-100.0 1:0.34759375 2:-5.3243125 
-100.0 1:0.21265039 2:-3.7266875 
-100.0 1:0.22000586 2:-2.8480625 
-100.0 1:0.34985352 2:-2.4348125 
-100.0 1:0.27545312 2:-2.4158125 
-100.0 1:0.29012891 2:-2.4004375 
-100.0 1:0.3078125 2:-3.290375 
-100.0 1:0.25304492 2:-2.577 
-100.0 1:0.34035352 2:-2.68275 
-100.0 1:0.38302539 2:-3.317625 
-100.0 1:0.23966797 2:-3.09075 
-100.0 1:0.28383789 2:-4.0355 
-100.0 1:0.35208008 2:-4.6825 
-100.0 1:0.40748633 2:-4.45825 
-100.0 1:0.14083984 2:-2.9261875 
-100.0 1:0.26226563 2:-4.5395 
-100.0 1:0.16753516 2:-3.496375 
-100.0 1:0.15762891 2:-2.296 
-100.0 1:0.47303906 2:-4.5331875 
-100.0 1:0.22743945 2:-4.0495 
-100.0 1:0.4128457 2:-5.946 
-100.0 1:0.22366992 2:-1.713625 
-100.0 1:0.33051172 2:-3.44125 
-100.0 1:0.14654883 2:-2.5340625 
-100.0 1:0.19266211 2:-3.5565625 
-100.0 1:0.30941602 2:-4.469125 
-100.0 1:0.23671484 2:-4.6655625 
-100.0 1:0.17841406 2:-3.1833125 
-100.0 1:0.34149805 2:-4.603125 
-100.0 1:0.2117168 2:-3.177625 
-100.0 1:0.37343359 2:-2.9120625 
-100.0 1:0.36638086 2:-3.2388125 
-100.0 1:0.16740625 2:-2.5234375 
-100.0 1:0.24900586 2:-5.3428125 
-100.0 1:0.49887891 2:-3.0599375 
-100.0 1:0.20806445 2:-2.2381875 
-100.0 1:0.17932031 2:-2.390125 
-100.0 1:0.26847266 2:-2.5329375 
-100.0 1:0.23867578 2:-2.756 
-100.0 1:0.22188477 2:-3.3343125 
-100.0 1:0.18766016 2:-2.834875 
-100.0 1:0.18010938 2:-3.24625 
-100.0 1:0.20846289 2:-1.83875 
-100.0 1:0.20823437 2:-3.4113125 
-100.0 1:0.26130078 2:-1.77575 
-100.0 1:0.434875 2:-4.560125 
-100.0 1:0.43825586 2:-2.51575 
-82.66603668690506 1:0.40568945 2:-3.4481875 
-100.0 1:0.2940332 2:-3.7155625 
-100.0 1:0.46249414 2:-4.082 
-100.0 1:0.42033008 2:-5.502875 
-100.0 1:0.2657168 2:-4.5379375 
-100.0 1:0.29499023 2:-2.921 
-100.0 1:0.25369141 2:-3.0723125 
-100.0 1:0.25874023 2:-3.8271875 
-100.0 1:0.28290039 2:-3.3270625 
-100.0 1:0.23804687 2:-3.332625 
-100.0 1:0.19194727 2:-3.5285 
-9.205842856880379 1:0.17753906 2:-2.79 
-100.0 1:0.16408594 2:-2.3094375 
-100.0 1:0.31331641 2:-3.9036875 
-100.0 1:0.39397461 2:-3.8175 
-100.0 1:0.36310352 2:-2.8215625 
-100.0 1:0.27748437 2:-4.232625 
-100.0 1:0.32814648 2:-4.10025 
-100.0 1:0.32876367 2:-2.7605 
-100.0 1:0.36598633 2:-2.9008125 
-100.0 1:0.18567578 2:-3.196375 
-100.0 1:0.1642207 2:-2.02825 
-100.0 1:0.24247852 2:-2.04975 
-100.0 1:0.28387695 2:-3.0823125 
-100.0 1:0.47109961 2:-4.566125 
-100.0 1:0.21373242 2:-4.1996875 
-100.0 1:0.34296484 2:-2.37725 
-100.0 1:0.17342969 2:-3.4353125 
-100.0 1:0.15835352 2:-3.1899375 
-100.0 1:0.28905078 2:-3.00425 
-100.0 1:0.22826563 2:-3.2530625 
-100.0 1:0.15037695 2:-2.9729375 
-100.0 1:0.38314062 2:-2.5246875 
-100.0 1:0.1662793 2:-2.6305 
-100.0 1:0.23612891 2:-4.33225 
-100.0 1:0.38989063 2:-2.975 
-100.0 1:0.34558203 2:-3.37725 
-100.0 1:0.15630078 2:-1.555375 
-100.0 1:0.32716602 2:-2.767 
-100.0 1:0.30524609 2:-3.7535625 
-99.98552666214249 1:0.27432422 2:-2.5110625 
-100.0 1:0.13848047 2:-2.4273125 
-97.61428069107335 1:0.22480859 2:-2.255625 
-100.0 1:0.35628711 2:-6.539625 
-100.0 1:0.38274609 2:-3.323375 
-100.0 1:0.19902148 2:-3.129625 
-100.0 1:0.31269922 2:-4.47825 
-100.0 1:0.32971875 2:-3.6864375 
-100.0 1:0.16261914 2:-3.700375 
-100.0 1:0.15406055 2:-2.5658125 
-21.05371597396238 1:0.28570312 2:-1.774 
-100.0 1:0.24998242 2:-3.8195625 
-100.0 1:0.17409766 2:-3.4580625 
-100.0 1:0.30579492 2:-2.78075 
-100.0 1:0.29557227 2:-4.465 
-100.0 1:0.36222656 2:-4.23425 
-100.0 1:0.24937305 2:-5.06975 
-100.0 1:0.29107422 2:-4.6368125 
-100.0 1:0.29311328 2:-4.3414375 
-100.0 1:0.32823438 2:-4.709125 
-100.0 1:0.30285156 2:-5.0973125 
-100.0 1:0.20561914 2:-2.3905625 
-100.0 1:0.24474805 2:-3.388625 
-2.852239703464093 1:0.16383984 2:-2.9104375 
-100.0 1:0.32654883 2:-4.3288125 
-100.0 1:0.46446094 2:-3.1174375 
-100.0 1:0.2820918 2:-3.37775 
-100.0 1:0.18832617 2:-3.489 
-100.0 1:0.24811523 2:-4.385125 
-100.0 1:0.31997461 2:-4.7644375 
-100.0 1:0.22520898 2:-3.5239375 
-100.0 1:0.37239258 2:-3.290125 
-100.0 1:0.19 2:-2.9119375 
-100.0 1:0.13036719 2:-2.7336875 
-100.0 1:0.30881445 2:-2.2698125 
-99.32407909482826 1:0.29321875 2:-3.302 
-100.0 1:0.25541797 2:-3.2610625 
-100.0 1:0.22643555 2:-2.9925625 
-100.0 1:0.28729883 2:-5.168375 
-100.0 1:0.20046875 2:-2.5005 
-100.0 1:0.25701367 2:-2.2314375 
-100.0 1:0.25719141 2:-3.743625 
-100.0 1:0.30623242 2:-5.047625 
-100.0 1:0.19458008 2:-3.5919375 
-100.0 1:0.26674219 2:-3.784625 
-100.0 1:0.21825195 2:-3.4581875 
-100.0 1:0.22953125 2:-4.0635 
-100.0 1:0.20134375 2:-1.7034375 
-100.0 1:0.17652344 2:-2.8240625 
-100.0 1:0.26779102 2:-3.713875 
-100.0 1:0.38399023 2:-4.735 
-100.0 1:0.28163281 2:-3.179375 
-100.0 1:0.21776758 2:-3.8276875 
-100.0 1:0.27551563 2:-4.810875 
-100.0 1:0.22251758 2:-4.223375 
-100.0 1:0.31682227 2:-3.2665 
-100.0 1:0.40796094 2:-6.3503125 
-100.0 1:0.29873633 2:-4.0429375 
-100.0 1:0.33358203 2:-3.0415 
-100.0 1:0.33156641 2:-3.792 
-100.0 1:0.36936914 2:-3.5874375 
-100.0 1:0.31573633 2:-3.224125 
-100.0 1:0.29299805 2:-3.0075 
-100.0 1:0.37058984 2:-3.2365 
-100.0 1:0.30987109 2:-4.26675 
-100.0 1:0.2595918 2:-3.181375 
-69.0906099735899 1:0.12719922 2:-1.6950625 
-100.0 1:0.2569082 2:-4.4128125 
-100.0 1:0.41676953 2:-3.57375 
-100.0 1:0.35033594 2:-2.7564375 
-100.0 1:0.40937109 2:-2.7834375 
-100.0 1:0.2079375 2:-2.7189375 
-100.0 1:0.40685938 2:-5.1049375 
-100.0 1:0.28948047 2:-5.2085 
-100.0 1:0.43280273 2:-3.691 
-94.37449897155341 1:0.1367168 2:-2.7264375 
-100.0 1:0.2521875 2:-3.2321875 
-100.0 1:0.19191992 2:-3.187125 
-100.0 1:0.36582813 2:-4.68175 
-100.0 1:0.34483398 2:-3.801125 
-100.0 1:0.27938086 2:-4.3648125 
-97.38921312477775 1:0.29625195 2:-4.1665 
-100.0 1:0.28278906 2:-2.4069375 
-100.0 1:0.34071484 2:-2.841 
-100.0 1:0.49850195 2:-4.2493125 
-100.0 1:0.39511719 2:-3.599125 
-100.0 1:0.27696484 2:-4.2766875 
-100.0 1:0.16145117 2:-2.4376875 
-100.0 1:0.37252148 2:-3.554625 
-100.0 1:0.13396289 2:-2.110125 
-100.0 1:0.2403418 2:-4.811 
-100.0 1:0.21700781 2:-2.3581875 
-100.0 1:0.24443555 2:-3.5398125 
-100.0 1:0.18711914 2:-2.3135 
-100.0 1:0.31110156 2:-5.0136875 
-100.0 1:0.39318359 2:-3.0641875 
-100.0 1:0.24126758 2:-2.4735 
-100.0 1:0.30999805 2:-3.1918125 
-36.83878403916279 1:0.32408008 2:-3.10675 
-100.0 1:0.365375 2:-2.8435 
-100.0 1:0.27822461 2:-1.836375 
-100.0 1:0.29617773 2:-2.55825 
-100.0 1:0.25279492 2:-3.1105 
-100.0 1:0.39370508 2:-2.9211875 
